<?xml version="1.0"?>
<opencv_storage>
<my_svm type_id="opencv-ml-svm">
  <svm_type>C_SVC</svm_type>
  <kernel><type>RBF</type>
    <gamma>1.</gamma></kernel>
  <C>1.5000000000000001e-004</C>
  <term_criteria><epsilon>1.1920928955078125e-007</epsilon>
    <iterations>1000</iterations></term_criteria>
  <var_all>1120</var_all>
  <var_count>1120</var_count>
  <class_count>3</class_count>
  <class_labels type_id="opencv-matrix">
    <rows>1</rows>
    <cols>3</cols>
    <dt>i</dt>
    <data>
      0 1 2</data></class_labels>
  <sv_total>91</sv_total>
  <support_vectors>
    <_>
      -431602080. -431602080. -431602080. -431602080. -431602080.
      -431602080. -431602080. -431602080. -431602080. -431602080.
      -431602080. -431602080. -431602080. -431602080. -431602080.
      -431602080. -431602080. -431602080. -431602080. -431602080.
      -431602080. -431602080. -431602080. -431602080. -431602080.
      -431602080. -431602080. -431602080. -431602080. -431602080.
      -431602080. -431602080. -431602080. -431602080. -431602080.
      -431602080. -431602080. -431602080. -431602080. -431602080.
      -431602080. -431602080. -431602080. -431602080. -431602080.
      -431602080. -431602080. -431602080. -431602080. -431602080.
      -431602080. -431602080. -431602080. -431602080. -431602080.
      -431602080. -431602080. -431602080. -431602080. -431602080.
      -431602080. -431602080. -431602080. -431602080. -431602080.
      -431602080. -431602080. -431602080. -431602080. -431602080.
      -431602080. -431602080. -431602080. -431602080. -431602080.
      -431602080. -431602080. -431602080. -431602080. -431602080.
      -431602080. -431602080. -431602080. -431602080. -431602080.
      -431602080. -431602080. -431602080. -431602080. -431602080.
      -431602080. -431602080. -431602080. -431602080. -431602080.
      -431602080. -431602080. -431602080. -431602080. -431602080.
      -431602080. -431602080. -431602080. -431602080. -431602080.
      -431602080. -431602080. -431602080. -431602080. -431602080.
      -431602080. -431602080. -431602080. -431602080. -431602080.
      -431602080. -431602080. -431602080. -431602080. -431602080.
      -431602080. -431602080. -431602080. -431602080. -431602080.
      -431602080. -431602080. -431602080. -431602080. -431602080.
      -431602080. -431602080. -431602080. -431602080. -431602080.
      -431602080. -431602080. -431602080. -431602080. -431602080.
      -431602080. -431602080. -431602080. -431602080. -431602080.
      -431602080. -431602080. -431602080. -431602080. -431602080.
      -431602080. -431602080. -431602080. -431602080. -431602080.
      -431602080. -431602080. -431602080. -431602080. -431602080.
      -431602080. -431602080. -431602080. -431602080. -431602080.
      -431602080. -431602080. -431602080. -431602080. -431602080.
      -431602080. -431602080. -431602080. -431602080. -431602080.
      -431602080. -431602080. -431602080. -431602080. -431602080.
      -431602080. -431602080. -431602080. -431602080. -431602080.
      -431602080. -431602080. -431602080. -431602080. -431602080.
      -431602080. -431602080. -431602080. -431602080. -431602080.
      -431602080. -431602080. -431602080. -431602080. -431602080.
      -431602080. -431602080. -431602080. -431602080. -431602080.
      -431602080. -431602080. -431602080. -431602080. -431602080.
      -431602080. -431602080. -431602080. -431602080. -431602080.
      -431602080. -431602080. -431602080. -431602080. -431602080.
      -431602080. -431602080. -431602080. -431602080. -431602080.
      -431602080. -431602080. -431602080. -431602080. -431602080.
      -431602080. -431602080. -431602080. -431602080. -431602080.
      -431602080. -431602080. -431602080. -431602080. -431602080.
      -431602080. -431602080. -431602080. -431602080. -431602080.
      -431602080. -431602080. -431602080. -431602080. -431602080.
      -431602080. -431602080. -431602080. -431602080. -431602080.
      -431602080. -431602080. -431602080. -431602080. -431602080.
      -431602080. -431602080. -431602080. -431602080. -431602080.
      -431602080. -431602080. -431602080. -431602080. -431602080.
      -431602080. -431602080. -431602080. -431602080. -431602080.
      -431602080. -431602080. -431602080. -431602080. -431602080.
      -431602080. -431602080. -431602080. -431602080. -431602080.
      -431602080. -431602080. -431602080. -431602080. -431602080.
      -431602080. -431602080. -431602080. -431602080. -431602080.
      -431602080. -431602080. -431602080. -431602080. -431602080.
      -431602080. -431602080. -431602080. -431602080. -431602080.
      -431602080. -431602080. -431602080. -431602080. -431602080.
      -431602080. -431602080. -431602080. -431602080. -431602080.
      -431602080. -431602080. -431602080. -431602080. -431602080.
      -431602080. -431602080. -431602080. -431602080. -431602080.
      -431602080. -431602080. -431602080. -431602080. -431602080.
      -431602080. -431602080. -431602080. -431602080. -431602080.
      -431602080. -431602080. -431602080. -431602080. -431602080.
      -431602080. -431602080. -431602080. -431602080. -431602080.
      -431602080. -431602080. -431602080. -431602080. -431602080.
      -431602080. -431602080. -431602080. -431602080. -431602080.
      -431602080. -431602080. -431602080. -431602080. -431602080.
      -431602080. -431602080. -431602080. -431602080. -431602080.
      -431602080. -431602080. -431602080. -431602080. -431602080.
      -431602080. -431602080. -431602080. -431602080. -431602080.
      -431602080. -431602080. -431602080. -431602080. -431602080.
      -431602080. -431602080. -431602080. -431602080. -431602080.
      -431602080. -431602080. -431602080. -431602080. -431602080.
      -431602080. -431602080. -431602080. -431602080. -431602080.
      -431602080. -431602080. -431602080. -431602080. -431602080.
      -431602080. -431602080. -431602080. -431602080. -431602080.
      -431602080. -431602080. -431602080. -431602080. -431602080.
      -431602080. -431602080. -431602080. -431602080. -431602080.
      -431602080. -431602080. -431602080. -431602080. -431602080.
      -431602080. -431602080. -431602080. -431602080. -431602080.
      -431602080. -431602080. -431602080. -431602080. -431602080.
      -431602080. -431602080. -431602080. -431602080. -431602080.
      -431602080. -431602080. -431602080. -431602080. -431602080.
      -431602080. -431602080. -431602080. -431602080. -431602080.
      -431602080. -431602080. -431602080. -431602080. -431602080.
      -431602080. -431602080. -431602080. -431602080. -431602080.
      -431602080. -431602080. -431602080. -431602080. -431602080.
      -431602080. -431602080. -431602080. -431602080. -431602080.
      -431602080. -431602080. -431602080. -431602080. -431602080.
      -431602080. -431602080. -431602080. -431602080. -431602080.
      -431602080. -431602080. -431602080. -431602080. -431602080.
      -431602080. -431602080. -431602080. -431602080. -431602080.
      -431602080. -431602080. -431602080. -431602080. -431602080.
      -431602080. -431602080. -431602080. -431602080. -431602080.
      -431602080. -431602080. -431602080. -431602080. -431602080.
      -431602080. -431602080. -431602080. -431602080. -431602080.
      -431602080. -431602080. -431602080. -431602080. -431602080.
      -431602080. -431602080. -431602080. -431602080. -431602080.
      -431602080. -431602080. -431602080. -431602080. -431602080.
      -431602080. -431602080. -431602080. -431602080. -431602080.
      -431602080. -431602080. -431602080. -431602080. -431602080.
      -431602080. -431602080. -431602080. -431602080. -431602080.
      -431602080. -431602080. -431602080. -431602080. -431602080.
      -431602080. -431602080. -431602080. -431602080. -431602080.
      -431602080. -431602080. -431602080. -431602080. -431602080.
      -431602080. -431602080. -431602080. -431602080. -431602080.
      -431602080. -431602080. -431602080. -431602080. -431602080.
      -431602080. -431602080. -431602080. -431602080. -431602080.
      -431602080. -431602080. -431602080. -431602080. -431602080.
      -431602080. -431602080. -431602080. -431602080. -431602080.
      -431602080. -431602080. -431602080. -431602080. -431602080.
      -431602080. -431602080. -431602080. -431602080. -431602080.
      -431602080. -431602080. -431602080. -431602080. -431602080.
      -431602080. -431602080. -431602080. -431602080. -431602080.
      -431602080. -431602080. -431602080. -431602080. -431602080.
      -431602080. -431602080. -431602080. -431602080. -431602080.
      -431602080. -431602080. -431602080. -431602080. -431602080.
      -431602080. -431602080. -431602080. -431602080. -431602080.
      -431602080. -431602080. -431602080. -431602080. -431602080.
      -431602080. -431602080. -431602080. -431602080. -431602080.
      -431602080. -431602080. -431602080. -431602080. -431602080.
      -431602080. -431602080. -431602080. -431602080. -431602080.
      -431602080. -431602080. -431602080. -431602080. -431602080.
      -431602080. -431602080. -431602080. -431602080. -431602080.
      -431602080. -431602080. -431602080. -431602080. -431602080.
      -431602080. -431602080. -431602080. -431602080. -431602080.
      -431602080. -431602080. -431602080. -431602080. -431602080.
      -431602080. -431602080. -431602080. -431602080. -431602080.
      -431602080. -431602080. -431602080. -431602080. -431602080.
      -431602080. -431602080. -431602080. -431602080. -431602080.
      -431602080. -431602080. -431602080. -431602080. -431602080.
      -431602080. -431602080. -431602080. -431602080. -431602080.
      -431602080. -431602080. -431602080. -431602080. -431602080.
      -431602080. -431602080. -431602080. -431602080. -431602080.
      -431602080. -431602080. -431602080. -431602080. -431602080.
      -431602080. -431602080. -431602080. -431602080. -431602080.
      -431602080. -431602080. -431602080. -431602080. -431602080.
      -431602080. -431602080. -431602080. -431602080. -431602080.
      -431602080. -431602080. -431602080. -431602080. -431602080.
      -431602080. -431602080. -431602080. -431602080. -431602080.
      -431602080. -431602080. -431602080. -431602080. -431602080.
      -431602080. -431602080. -431602080. -431602080. -431602080.
      -431602080. -431602080. -431602080. -431602080. -431602080.
      -431602080. -431602080. -431602080. -431602080. -431602080.
      -431602080. -431602080. -431602080. -431602080. -431602080.
      -431602080. -431602080. -431602080. -431602080. -431602080.
      -431602080. -431602080. -431602080. -431602080. -431602080.
      -431602080. -431602080. -431602080. -431602080. -431602080.
      -431602080. -431602080. -431602080. -431602080. -431602080.
      -431602080. -431602080. -431602080. -431602080. -431602080.
      -431602080. -431602080. -431602080. -431602080. -431602080.
      -431602080. -431602080. -431602080. -431602080. -431602080.
      -431602080. -431602080. -431602080. -431602080. -431602080.
      -431602080. -431602080. -431602080. -431602080. -431602080.
      -431602080. -431602080. -431602080. -431602080. -431602080.
      -431602080. -431602080. -431602080. -431602080. -431602080.
      -431602080. -431602080. -431602080. -431602080. -431602080.
      -431602080. -431602080. -431602080. -431602080. -431602080.
      -431602080. -431602080. -431602080. -431602080. -431602080.
      -431602080. -431602080. -431602080. -431602080. -431602080.
      -431602080. -431602080. -431602080. -431602080. -431602080.
      -431602080. -431602080. -431602080. -431602080. -431602080.
      -431602080. -431602080. -431602080. -431602080. -431602080.
      -431602080. -431602080. -431602080. -431602080. -431602080.
      -431602080. -431602080. -431602080. -431602080. -431602080.
      -431602080. -431602080. -431602080. -431602080. -431602080.
      -431602080. -431602080. -431602080. -431602080. -431602080.
      -431602080. -431602080. -431602080. -431602080. -431602080.
      -431602080. -431602080. -431602080. -431602080. -431602080.
      -431602080. -431602080. -431602080. -431602080. -431602080.
      -431602080. -431602080. -431602080. -431602080. -431602080.
      -431602080. -431602080. -431602080. -431602080. -431602080.
      -431602080. -431602080. -431602080. -431602080. -431602080.
      -431602080. -431602080. -431602080. -431602080. -431602080.
      -431602080. -431602080. -431602080. -431602080. -431602080.
      -431602080. -431602080. -431602080. -431602080. -431602080.
      -431602080. -431602080. -431602080. -431602080. -431602080.
      -431602080. -431602080. -431602080. -431602080. -431602080.
      -431602080. -431602080. -431602080. -431602080. -431602080.
      -431602080. -431602080. -431602080. -431602080. -431602080.
      -431602080. -431602080. -431602080. -431602080. -431602080.
      -431602080. -431602080. -431602080. -431602080. -431602080.
      -431602080. -431602080. -431602080. -431602080. -431602080.
      -431602080. -431602080. -431602080. -431602080. -431602080.
      -431602080. -431602080. -431602080. -431602080. -431602080.
      -431602080. -431602080. -431602080. -431602080. -431602080.
      -431602080. -431602080. -431602080. -431602080. -431602080.
      -431602080. -431602080. -431602080. -431602080. -431602080.
      -431602080. -431602080. -431602080. -431602080. -431602080.
      -431602080. -431602080. -431602080. -431602080. -431602080.
      -431602080. -431602080. -431602080. -431602080. -431602080.
      -431602080. -431602080. -431602080. -431602080. -431602080.
      -431602080. -431602080. -431602080. -431602080. -431602080.
      -431602080. -431602080. -431602080. -431602080. -431602080.
      -431602080. -431602080. -431602080. -431602080. -431602080.
      -431602080. -431602080. -431602080. -431602080. -431602080.
      -431602080. -431602080. -431602080. -431602080. -431602080.
      -431602080. -431602080. -431602080. -431602080. -431602080.
      -431602080. -431602080. -431602080. -431602080. -431602080.
      -431602080. -431602080. -431602080. -431602080. -431602080.
      -431602080. -431602080. -431602080. -431602080. -431602080.
      -431602080. -431602080. -431602080. -431602080. -431602080.
      -431602080. -431602080. -431602080. -431602080. -431602080.
      -431602080. -431602080. -431602080. -431602080. -431602080.
      -431602080. -431602080. -431602080. -431602080. -431602080.
      -431602080. -431602080. -431602080. -431602080. -431602080.
      -431602080. -431602080. -431602080. -431602080. -431602080.
      -431602080. -431602080. -431602080. -431602080. -431602080.
      -431602080. -431602080. -431602080. -431602080. -431602080.
      -431602080. -431602080. -431602080. -431602080. -431602080.
      -431602080. -431602080. -431602080. -431602080. -431602080.
      -431602080. -431602080. -431602080. -431602080. -431602080.
      -431602080. -431602080. -431602080. -431602080. -431602080.
      -431602080. -431602080. -431602080. -431602080. -431602080.
      -431602080. -431602080. -431602080. -431602080. -431602080.
      -431602080. -431602080. -431602080. -431602080. -431602080.
      -431602080. -431602080. -431602080. -431602080. -431602080.
      -431602080. -431602080. -431602080. -431602080. -431602080.
      -431602080. -431602080. -431602080. -431602080. -431602080.</_>
    <_>
      -431602080. -431602080. -431602080. -431602080. -431602080.
      -431602080. -431602080. -431602080. -431602080. -431602080.
      -431602080. -431602080. -431602080. -431602080. -431602080.
      -431602080. -431602080. -431602080. -431602080. -431602080.
      -431602080. -431602080. -431602080. -431602080. -431602080.
      -431602080. -431602080. -431602080. -431602080. -431602080.
      -431602080. -431602080. -431602080. -431602080. -431602080.
      -431602080. -431602080. -431602080. -431602080. -431602080.
      -431602080. -431602080. -431602080. -431602080. -431602080.
      -431602080. -431602080. -431602080. -431602080. -431602080.
      -431602080. -431602080. -431602080. -431602080. -431602080.
      -431602080. -431602080. -431602080. -431602080. -431602080.
      -431602080. -431602080. -431602080. -431602080. -431602080.
      -431602080. -431602080. -431602080. -431602080. -431602080.
      -431602080. -431602080. -431602080. -431602080. -431602080.
      -431602080. -431602080. -431602080. -431602080. -431602080.
      -431602080. -431602080. -431602080. -431602080. -431602080.
      -431602080. -431602080. -431602080. -431602080. -431602080.
      -431602080. -431602080. -431602080. -431602080. -431602080.
      -431602080. -431602080. -431602080. -431602080. -431602080.
      -431602080. -431602080. -431602080. -431602080. -431602080.
      -431602080. -431602080. -431602080. -431602080. -431602080.
      -431602080. -431602080. -431602080. -431602080. -431602080.
      -431602080. -431602080. -431602080. -431602080. -431602080.
      -431602080. -431602080. -431602080. -431602080. -431602080.
      -431602080. -431602080. -431602080. -431602080. -431602080.
      -431602080. -431602080. -431602080. -431602080. -431602080.
      -431602080. -431602080. -431602080. -431602080. -431602080.
      -431602080. -431602080. -431602080. -431602080. -431602080.
      -431602080. -431602080. -431602080. -431602080. -431602080.
      -431602080. -431602080. -431602080. -431602080. -431602080.
      -431602080. -431602080. -431602080. -431602080. -431602080.
      -431602080. -431602080. -431602080. -431602080. -431602080.
      -431602080. -431602080. -431602080. -431602080. -431602080.
      -431602080. -431602080. -431602080. -431602080. -431602080.
      -431602080. -431602080. -431602080. -431602080. -431602080.
      -431602080. -431602080. -431602080. -431602080. -431602080.
      -431602080. -431602080. -431602080. -431602080. -431602080.
      -431602080. -431602080. -431602080. -431602080. -431602080.
      -431602080. -431602080. -431602080. -431602080. -431602080.
      -431602080. -431602080. -431602080. -431602080. -431602080.
      -431602080. -431602080. -431602080. -431602080. -431602080.
      -431602080. -431602080. -431602080. -431602080. -431602080.
      -431602080. -431602080. -431602080. -431602080. -431602080.
      -431602080. -431602080. -431602080. -431602080. -431602080.
      -431602080. -431602080. -431602080. -431602080. -431602080.
      -431602080. -431602080. -431602080. -431602080. -431602080.
      -431602080. -431602080. -431602080. -431602080. -431602080.
      -431602080. -431602080. -431602080. -431602080. -431602080.
      -431602080. -431602080. -431602080. -431602080. -431602080.
      -431602080. -431602080. -431602080. -431602080. -431602080.
      -431602080. -431602080. -431602080. -431602080. -431602080.
      -431602080. -431602080. -431602080. -431602080. -431602080.
      -431602080. -431602080. -431602080. -431602080. -431602080.
      -431602080. -431602080. -431602080. -431602080. -431602080.
      -431602080. -431602080. -431602080. -431602080. -431602080.
      -431602080. -431602080. -431602080. -431602080. -431602080.
      -431602080. -431602080. -431602080. -431602080. -431602080.
      -431602080. -431602080. -431602080. -431602080. -431602080.
      -431602080. -431602080. -431602080. -431602080. -431602080.
      -431602080. -431602080. -431602080. -431602080. -431602080.
      -431602080. -431602080. -431602080. -431602080. -431602080.
      -431602080. -431602080. -431602080. -431602080. -431602080.
      -431602080. -431602080. -431602080. -431602080. -431602080.
      -431602080. -431602080. -431602080. -431602080. -431602080.
      -431602080. -431602080. -431602080. -431602080. -431602080.
      -431602080. -431602080. -431602080. -431602080. -431602080.
      -431602080. -431602080. -431602080. -431602080. -431602080.
      -431602080. -431602080. -431602080. -431602080. -431602080.
      -431602080. -431602080. -431602080. -431602080. -431602080.
      -431602080. -431602080. -431602080. -431602080. -431602080.
      -431602080. -431602080. -431602080. -431602080. -431602080.
      -431602080. -431602080. -431602080. -431602080. -431602080.
      -431602080. -431602080. -431602080. -431602080. -431602080.
      -431602080. -431602080. -431602080. -431602080. -431602080.
      -431602080. -431602080. -431602080. -431602080. -431602080.
      -431602080. -431602080. -431602080. -431602080. -431602080.
      -431602080. -431602080. -431602080. -431602080. -431602080.
      -431602080. -431602080. -431602080. -431602080. -431602080.
      -431602080. -431602080. -431602080. -431602080. -431602080.
      -431602080. -431602080. -431602080. -431602080. -431602080.
      -431602080. -431602080. -431602080. -431602080. -431602080.
      -431602080. -431602080. -431602080. -431602080. -431602080.
      -431602080. -431602080. -431602080. -431602080. -431602080.
      -431602080. -431602080. -431602080. -431602080. -431602080.
      -431602080. -431602080. -431602080. -431602080. -431602080.
      -431602080. -431602080. -431602080. -431602080. -431602080.
      -431602080. -431602080. -431602080. -431602080. -431602080.
      -431602080. -431602080. -431602080. -431602080. -431602080.
      -431602080. -431602080. -431602080. -431602080. -431602080.
      -431602080. -431602080. -431602080. -431602080. -431602080.
      -431602080. -431602080. -431602080. -431602080. -431602080.
      -431602080. -431602080. -431602080. -431602080. -431602080.
      -431602080. -431602080. -431602080. -431602080. -431602080.
      -431602080. -431602080. -431602080. -431602080. -431602080.
      -431602080. -431602080. -431602080. -431602080. -431602080.
      -431602080. -431602080. -431602080. -431602080. -431602080.
      -431602080. -431602080. -431602080. -431602080. -431602080.
      -431602080. -431602080. -431602080. -431602080. -431602080.
      -431602080. -431602080. -431602080. -431602080. -431602080.
      -431602080. -431602080. -431602080. -431602080. -431602080.
      -431602080. -431602080. -431602080. -431602080. -431602080.
      -431602080. -431602080. -431602080. -431602080. -431602080.
      -431602080. -431602080. -431602080. -431602080. -431602080.
      -431602080. -431602080. -431602080. -431602080. -431602080.
      -431602080. -431602080. -431602080. -431602080. -431602080.
      -431602080. -431602080. -431602080. -431602080. -431602080.
      -431602080. -431602080. -431602080. -431602080. -431602080.
      -431602080. -431602080. -431602080. -431602080. -431602080.
      -431602080. -431602080. -431602080. -431602080. -431602080.
      -431602080. -431602080. -431602080. -431602080. -431602080.
      -431602080. -431602080. -431602080. -431602080. -431602080.
      -431602080. -431602080. -431602080. -431602080. -431602080.
      -431602080. -431602080. -431602080. -431602080. -431602080.
      -431602080. -431602080. -431602080. -431602080. -431602080.
      -431602080. -431602080. -431602080. -431602080. -431602080.
      -431602080. -431602080. -431602080. -431602080. -431602080.
      -431602080. -431602080. -431602080. -431602080. -431602080.
      -431602080. -431602080. -431602080. -431602080. -431602080.
      -431602080. -431602080. -431602080. -431602080. -431602080.
      -431602080. -431602080. -431602080. -431602080. -431602080.
      -431602080. -431602080. -431602080. -431602080. -431602080.
      -431602080. -431602080. -431602080. -431602080. -431602080.
      -431602080. -431602080. -431602080. -431602080. -431602080.
      -431602080. -431602080. -431602080. -431602080. -431602080.
      -431602080. -431602080. -431602080. -431602080. -431602080.
      -431602080. -431602080. -431602080. -431602080. -431602080.
      -431602080. -431602080. -431602080. -431602080. -431602080.
      -431602080. -431602080. -431602080. -431602080. -431602080.
      -431602080. -431602080. -431602080. -431602080. -431602080.
      -431602080. -431602080. -431602080. -431602080. -431602080.
      -431602080. -431602080. -431602080. -431602080. -431602080.
      -431602080. -431602080. -431602080. -431602080. -431602080.
      -431602080. -431602080. -431602080. -431602080. -431602080.
      -431602080. -431602080. -431602080. -431602080. -431602080.
      -431602080. -431602080. -431602080. -431602080. -431602080.
      -431602080. -431602080. -431602080. -431602080. -431602080.
      -431602080. -431602080. -431602080. -431602080. -431602080.
      -431602080. -431602080. -431602080. -431602080. -431602080.
      -431602080. -431602080. -431602080. -431602080. -431602080.
      -431602080. -431602080. -431602080. -431602080. -431602080.
      -431602080. -431602080. -431602080. -431602080. -431602080.
      -431602080. -431602080. -431602080. -431602080. -431602080.
      -431602080. -431602080. -431602080. -431602080. -431602080.
      -431602080. -431602080. -431602080. -431602080. -431602080.
      -431602080. -431602080. -431602080. -431602080. -431602080.
      -431602080. -431602080. -431602080. -431602080. -431602080.
      -431602080. -431602080. -431602080. -431602080. -431602080.
      -431602080. -431602080. -431602080. -431602080. -431602080.
      -431602080. -431602080. -431602080. -431602080. -431602080.
      -431602080. -431602080. -431602080. -431602080. -431602080.
      -431602080. -431602080. -431602080. -431602080. -431602080.
      -431602080. -431602080. -431602080. -431602080. -431602080.
      -431602080. -431602080. -431602080. -431602080. -431602080.
      -431602080. -431602080. -431602080. -431602080. -431602080.
      -431602080. -431602080. -431602080. -431602080. -431602080.
      -431602080. -431602080. -431602080. -431602080. -431602080.
      -431602080. -431602080. -431602080. -431602080. -431602080.
      -431602080. -431602080. -431602080. -431602080. -431602080.
      -431602080. -431602080. -431602080. -431602080. -431602080.
      -431602080. -431602080. -431602080. -431602080. -431602080.
      -431602080. -431602080. -431602080. -431602080. -431602080.
      -431602080. -431602080. -431602080. -431602080. -431602080.
      -431602080. -431602080. -431602080. -431602080. -431602080.
      -431602080. -431602080. -431602080. -431602080. -431602080.
      -431602080. -431602080. -431602080. -431602080. -431602080.
      -431602080. -431602080. -431602080. -431602080. -431602080.
      -431602080. -431602080. -431602080. -431602080. -431602080.
      -431602080. -431602080. -431602080. -431602080. -431602080.
      -431602080. -431602080. -431602080. -431602080. -431602080.
      -431602080. -431602080. -431602080. -431602080. -431602080.
      -431602080. -431602080. -431602080. -431602080. -431602080.
      -431602080. -431602080. -431602080. -431602080. -431602080.
      -431602080. -431602080. -431602080. -431602080. -431602080.
      -431602080. -431602080. -431602080. -431602080. -431602080.
      -431602080. -431602080. -431602080. -431602080. -431602080.
      -431602080. -431602080. -431602080. -431602080. -431602080.
      -431602080. -431602080. -431602080. -431602080. -431602080.
      -431602080. -431602080. -431602080. -431602080. -431602080.
      -431602080. -431602080. -431602080. -431602080. -431602080.
      -431602080. -431602080. -431602080. -431602080. -431602080.
      -431602080. -431602080. -431602080. -431602080. -431602080.
      -431602080. -431602080. -431602080. -431602080. -431602080.
      -431602080. -431602080. -431602080. -431602080. -431602080.
      -431602080. -431602080. -431602080. -431602080. -431602080.
      -431602080. -431602080. -431602080. -431602080. -431602080.
      -431602080. -431602080. -431602080. -431602080. -431602080.
      -431602080. -431602080. -431602080. -431602080. -431602080.
      -431602080. -431602080. -431602080. -431602080. -431602080.
      -431602080. -431602080. -431602080. -431602080. -431602080.
      -431602080. -431602080. -431602080. -431602080. -431602080.
      -431602080. -431602080. -431602080. -431602080. -431602080.
      -431602080. -431602080. -431602080. -431602080. -431602080.
      -431602080. -431602080. -431602080. -431602080. -431602080.
      -431602080. -431602080. -431602080. -431602080. -431602080.
      -431602080. -431602080. -431602080. -431602080. -431602080.
      -431602080. -431602080. -431602080. -431602080. -431602080.
      -431602080. -431602080. -431602080. -431602080. -431602080.
      -431602080. -431602080. -431602080. -431602080. -431602080.
      -431602080. -431602080. -431602080. -431602080. -431602080.
      -431602080. -431602080. -431602080. -431602080. -431602080.
      -431602080. -431602080. -431602080. -431602080. -431602080.
      -431602080. -431602080. -431602080. -431602080. -431602080.
      -431602080. -431602080. -431602080. -431602080. -431602080.
      -431602080. -431602080. -431602080. -431602080. -431602080.
      -431602080. -431602080. -431602080. -431602080. -431602080.
      -431602080. -431602080. -431602080. -431602080. -431602080.
      -431602080. -431602080. -431602080. -431602080. -431602080.
      -431602080. -431602080. -431602080. -431602080. -431602080.
      -431602080. -431602080. -431602080. -431602080. -431602080.
      -431602080. -431602080. -431602080. -431602080. -431602080.
      -431602080. -431602080. -431602080. -431602080. -431602080.
      -431602080. -431602080. -431602080. -431602080. -431602080.
      -431602080. -431602080. -431602080. -431602080. -431602080.
      -431602080. -431602080. -431602080. -431602080. -431602080.
      -431602080. -431602080. -431602080. -431602080. -431602080.
      -431602080. -431602080. -431602080. -431602080. -431602080.
      -431602080. -431602080. -431602080. -431602080. -431602080.
      -431602080. -431602080. -431602080. -431602080. -431602080.
      -431602080. -431602080. -431602080. -431602080. -431602080.
      -431602080. -431602080. -431602080. -431602080. -431602080.
      -431602080. -431602080. -431602080. -431602080. -431602080.
      -431602080. -431602080. -431602080. -431602080. -431602080.
      -431602080. -431602080. -431602080. -431602080. -431602080.</_>
    <_>
      -431602080. -431602080. -431602080. -431602080. -431602080.
      -431602080. -431602080. -431602080. -431602080. -431602080.
      -431602080. -431602080. -431602080. -431602080. -431602080.
      -431602080. -431602080. -431602080. -431602080. -431602080.
      -431602080. -431602080. -431602080. -431602080. -431602080.
      -431602080. -431602080. -431602080. -431602080. -431602080.
      -431602080. -431602080. -431602080. -431602080. -431602080.
      -431602080. -431602080. -431602080. -431602080. -431602080.
      -431602080. -431602080. -431602080. -431602080. -431602080.
      -431602080. -431602080. -431602080. -431602080. -431602080.
      -431602080. -431602080. -431602080. -431602080. -431602080.
      -431602080. -431602080. -431602080. -431602080. -431602080.
      -431602080. -431602080. -431602080. -431602080. -431602080.
      -431602080. -431602080. -431602080. -431602080. -431602080.
      -431602080. -431602080. -431602080. -431602080. -431602080.
      -431602080. -431602080. -431602080. -431602080. -431602080.
      -431602080. -431602080. -431602080. -431602080. -431602080.
      -431602080. -431602080. -431602080. -431602080. -431602080.
      -431602080. -431602080. -431602080. -431602080. -431602080.
      -431602080. -431602080. -431602080. -431602080. -431602080.
      -431602080. -431602080. -431602080. -431602080. -431602080.
      -431602080. -431602080. -431602080. -431602080. -431602080.
      -431602080. -431602080. -431602080. -431602080. -431602080.
      -431602080. -431602080. -431602080. -431602080. -431602080.
      -431602080. -431602080. -431602080. -431602080. -431602080.
      -431602080. -431602080. -431602080. -431602080. -431602080.
      -431602080. -431602080. -431602080. -431602080. -431602080.
      -431602080. -431602080. -431602080. -431602080. -431602080.
      -431602080. -431602080. -431602080. -431602080. -431602080.
      -431602080. -431602080. -431602080. -431602080. -431602080.
      -431602080. -431602080. -431602080. -431602080. -431602080.
      -431602080. -431602080. -431602080. -431602080. -431602080.
      -431602080. -431602080. -431602080. -431602080. -431602080.
      -431602080. -431602080. -431602080. -431602080. -431602080.
      -431602080. -431602080. -431602080. -431602080. -431602080.
      -431602080. -431602080. -431602080. -431602080. -431602080.
      -431602080. -431602080. -431602080. -431602080. -431602080.
      -431602080. -431602080. -431602080. -431602080. -431602080.
      -431602080. -431602080. -431602080. -431602080. -431602080.
      -431602080. -431602080. -431602080. -431602080. -431602080.
      -431602080. -431602080. -431602080. -431602080. -431602080.
      -431602080. -431602080. -431602080. -431602080. -431602080.
      -431602080. -431602080. -431602080. -431602080. -431602080.
      -431602080. -431602080. -431602080. -431602080. -431602080.
      -431602080. -431602080. -431602080. -431602080. -431602080.
      -431602080. -431602080. -431602080. -431602080. -431602080.
      -431602080. -431602080. -431602080. -431602080. -431602080.
      -431602080. -431602080. -431602080. -431602080. -431602080.
      -431602080. -431602080. -431602080. -431602080. -431602080.
      -431602080. -431602080. -431602080. -431602080. -431602080.
      -431602080. -431602080. -431602080. -431602080. -431602080.
      -431602080. -431602080. -431602080. -431602080. -431602080.
      -431602080. -431602080. -431602080. -431602080. -431602080.
      -431602080. -431602080. -431602080. -431602080. -431602080.
      -431602080. -431602080. -431602080. -431602080. -431602080.
      -431602080. -431602080. -431602080. -431602080. -431602080.
      -431602080. -431602080. -431602080. -431602080. -431602080.
      -431602080. -431602080. -431602080. -431602080. -431602080.
      -431602080. -431602080. -431602080. -431602080. -431602080.
      -431602080. -431602080. -431602080. -431602080. -431602080.
      -431602080. -431602080. -431602080. -431602080. -431602080.
      -431602080. -431602080. -431602080. -431602080. -431602080.
      -431602080. -431602080. -431602080. -431602080. -431602080.
      -431602080. -431602080. -431602080. -431602080. -431602080.
      -431602080. -431602080. -431602080. -431602080. -431602080.
      -431602080. -431602080. -431602080. -431602080. -431602080.
      -431602080. -431602080. -431602080. -431602080. -431602080.
      -431602080. -431602080. -431602080. -431602080. -431602080.
      -431602080. -431602080. -431602080. -431602080. -431602080.
      -431602080. -431602080. -431602080. -431602080. -431602080.
      -431602080. -431602080. -431602080. -431602080. -431602080.
      -431602080. -431602080. -431602080. -431602080. -431602080.
      -431602080. -431602080. -431602080. -431602080. -431602080.
      -431602080. -431602080. -431602080. -431602080. -431602080.
      -431602080. -431602080. -431602080. -431602080. -431602080.
      -431602080. -431602080. -431602080. -431602080. -431602080.
      -431602080. -431602080. -431602080. -431602080. -431602080.
      -431602080. -431602080. -431602080. -431602080. -431602080.
      -431602080. -431602080. -431602080. -431602080. -431602080.
      -431602080. -431602080. -431602080. -431602080. -431602080.
      -431602080. -431602080. -431602080. -431602080. -431602080.
      -431602080. -431602080. -431602080. -431602080. -431602080.
      -431602080. -431602080. -431602080. -431602080. -431602080.
      -431602080. -431602080. -431602080. -431602080. -431602080.
      -431602080. -431602080. -431602080. -431602080. -431602080.
      -431602080. -431602080. -431602080. -431602080. -431602080.
      -431602080. -431602080. -431602080. -431602080. -431602080.
      -431602080. -431602080. -431602080. -431602080. -431602080.
      -431602080. -431602080. -431602080. -431602080. -431602080.
      -431602080. -431602080. -431602080. -431602080. -431602080.
      -431602080. -431602080. -431602080. -431602080. -431602080.
      -431602080. -431602080. -431602080. -431602080. -431602080.
      -431602080. -431602080. -431602080. -431602080. -431602080.
      -431602080. -431602080. -431602080. -431602080. -431602080.
      -431602080. -431602080. -431602080. -431602080. -431602080.
      -431602080. -431602080. -431602080. -431602080. -431602080.
      -431602080. -431602080. -431602080. -431602080. -431602080.
      -431602080. -431602080. -431602080. -431602080. -431602080.
      -431602080. -431602080. -431602080. -431602080. -431602080.
      -431602080. -431602080. -431602080. -431602080. -431602080.
      -431602080. -431602080. -431602080. -431602080. -431602080.
      -431602080. -431602080. -431602080. -431602080. -431602080.
      -431602080. -431602080. -431602080. -431602080. -431602080.
      -431602080. -431602080. -431602080. -431602080. -431602080.
      -431602080. -431602080. -431602080. -431602080. -431602080.
      -431602080. -431602080. -431602080. -431602080. -431602080.
      -431602080. -431602080. -431602080. -431602080. -431602080.
      -431602080. -431602080. -431602080. -431602080. -431602080.
      -431602080. -431602080. -431602080. -431602080. -431602080.
      -431602080. -431602080. -431602080. -431602080. -431602080.
      -431602080. -431602080. -431602080. -431602080. -431602080.
      -431602080. -431602080. -431602080. -431602080. -431602080.
      -431602080. -431602080. -431602080. -431602080. -431602080.
      -431602080. -431602080. -431602080. -431602080. -431602080.
      -431602080. -431602080. -431602080. -431602080. -431602080.
      -431602080. -431602080. -431602080. -431602080. -431602080.
      -431602080. -431602080. -431602080. -431602080. -431602080.
      -431602080. -431602080. -431602080. -431602080. -431602080.
      -431602080. -431602080. -431602080. -431602080. -431602080.
      -431602080. -431602080. -431602080. -431602080. -431602080.
      -431602080. -431602080. -431602080. -431602080. -431602080.
      -431602080. -431602080. -431602080. -431602080. -431602080.
      -431602080. -431602080. -431602080. -431602080. -431602080.
      -431602080. -431602080. -431602080. -431602080. -431602080.
      -431602080. -431602080. -431602080. -431602080. -431602080.
      -431602080. -431602080. -431602080. -431602080. -431602080.
      -431602080. -431602080. -431602080. -431602080. -431602080.
      -431602080. -431602080. -431602080. -431602080. -431602080.
      -431602080. -431602080. -431602080. -431602080. -431602080.
      -431602080. -431602080. -431602080. -431602080. -431602080.
      -431602080. -431602080. -431602080. -431602080. -431602080.
      -431602080. -431602080. -431602080. -431602080. -431602080.
      -431602080. -431602080. -431602080. -431602080. -431602080.
      -431602080. -431602080. -431602080. -431602080. -431602080.
      -431602080. -431602080. -431602080. -431602080. -431602080.
      -431602080. -431602080. -431602080. -431602080. -431602080.
      -431602080. -431602080. -431602080. -431602080. -431602080.
      -431602080. -431602080. -431602080. -431602080. -431602080.
      -431602080. -431602080. -431602080. -431602080. -431602080.
      -431602080. -431602080. -431602080. -431602080. -431602080.
      -431602080. -431602080. -431602080. -431602080. -431602080.
      -431602080. -431602080. -431602080. -431602080. -431602080.
      -431602080. -431602080. -431602080. -431602080. -431602080.
      -431602080. -431602080. -431602080. -431602080. -431602080.
      -431602080. -431602080. -431602080. -431602080. -431602080.
      -431602080. -431602080. -431602080. -431602080. -431602080.
      -431602080. -431602080. -431602080. -431602080. -431602080.
      -431602080. -431602080. -431602080. -431602080. -431602080.
      -431602080. -431602080. -431602080. -431602080. -431602080.
      -431602080. -431602080. -431602080. -431602080. -431602080.
      -431602080. -431602080. -431602080. -431602080. -431602080.
      -431602080. -431602080. -431602080. -431602080. -431602080.
      -431602080. -431602080. -431602080. -431602080. -431602080.
      -431602080. -431602080. -431602080. -431602080. -431602080.
      -431602080. -431602080. -431602080. -431602080. -431602080.
      -431602080. -431602080. -431602080. -431602080. -431602080.
      -431602080. -431602080. -431602080. -431602080. -431602080.
      -431602080. -431602080. -431602080. -431602080. -431602080.
      -431602080. -431602080. -431602080. -431602080. -431602080.
      -431602080. -431602080. -431602080. -431602080. -431602080.
      -431602080. -431602080. -431602080. -431602080. -431602080.
      -431602080. -431602080. -431602080. -431602080. -431602080.
      -431602080. -431602080. -431602080. -431602080. -431602080.
      -431602080. -431602080. -431602080. -431602080. -431602080.
      -431602080. -431602080. -431602080. -431602080. -431602080.
      -431602080. -431602080. -431602080. -431602080. -431602080.
      -431602080. -431602080. -431602080. -431602080. -431602080.
      -431602080. -431602080. -431602080. -431602080. -431602080.
      -431602080. -431602080. -431602080. -431602080. -431602080.
      -431602080. -431602080. -431602080. -431602080. -431602080.
      -431602080. -431602080. -431602080. -431602080. -431602080.
      -431602080. -431602080. -431602080. -431602080. -431602080.
      -431602080. -431602080. -431602080. -431602080. -431602080.
      -431602080. -431602080. -431602080. -431602080. -431602080.
      -431602080. -431602080. -431602080. -431602080. -431602080.
      -431602080. -431602080. -431602080. -431602080. -431602080.
      -431602080. -431602080. -431602080. -431602080. -431602080.
      -431602080. -431602080. -431602080. -431602080. -431602080.
      -431602080. -431602080. -431602080. -431602080. -431602080.
      -431602080. -431602080. -431602080. -431602080. -431602080.
      -431602080. -431602080. -431602080. -431602080. -431602080.
      -431602080. -431602080. -431602080. -431602080. -431602080.
      -431602080. -431602080. -431602080. -431602080. -431602080.
      -431602080. -431602080. -431602080. -431602080. -431602080.
      -431602080. -431602080. -431602080. -431602080. -431602080.
      -431602080. -431602080. -431602080. -431602080. -431602080.
      -431602080. -431602080. -431602080. -431602080. -431602080.
      -431602080. -431602080. -431602080. -431602080. -431602080.
      -431602080. -431602080. -431602080. -431602080. -431602080.
      -431602080. -431602080. -431602080. -431602080. -431602080.
      -431602080. -431602080. -431602080. -431602080. -431602080.
      -431602080. -431602080. -431602080. -431602080. -431602080.
      -431602080. -431602080. -431602080. -431602080. -431602080.
      -431602080. -431602080. -431602080. -431602080. -431602080.
      -431602080. -431602080. -431602080. -431602080. -431602080.
      -431602080. -431602080. -431602080. -431602080. -431602080.
      -431602080. -431602080. -431602080. -431602080. -431602080.
      -431602080. -431602080. -431602080. -431602080. -431602080.
      -431602080. -431602080. -431602080. -431602080. -431602080.
      -431602080. -431602080. -431602080. -431602080. -431602080.
      -431602080. -431602080. -431602080. -431602080. -431602080.
      -431602080. -431602080. -431602080. -431602080. -431602080.
      -431602080. -431602080. -431602080. -431602080. -431602080.
      -431602080. -431602080. -431602080. -431602080. -431602080.
      -431602080. -431602080. -431602080. -431602080. -431602080.
      -431602080. -431602080. -431602080. -431602080. -431602080.
      -431602080. -431602080. -431602080. -431602080. -431602080.
      -431602080. -431602080. -431602080. -431602080. -431602080.
      -431602080. -431602080. -431602080. -431602080. -431602080.
      -431602080. -431602080. -431602080. -431602080. -431602080.
      -431602080. -431602080. -431602080. -431602080. -431602080.
      -431602080. -431602080. -431602080. -431602080. -431602080.
      -431602080. -431602080. -431602080. -431602080. -431602080.
      -431602080. -431602080. -431602080. -431602080. -431602080.
      -431602080. -431602080. -431602080. -431602080. -431602080.
      -431602080. -431602080. -431602080. -431602080. -431602080.
      -431602080. -431602080. -431602080. -431602080. -431602080.
      -431602080. -431602080. -431602080. -431602080. -431602080.
      -431602080. -431602080. -431602080. -431602080. -431602080.
      -431602080. -431602080. -431602080. -431602080. -431602080.
      -431602080. -431602080. -431602080. -431602080. -431602080.
      -431602080. -431602080. -431602080. -431602080. -431602080.
      -431602080. -431602080. -431602080. -431602080. -431602080.
      -431602080. -431602080. -431602080. -431602080. -431602080.</_>
    <_>
      -431602080. -431602080. -431602080. -431602080. -431602080.
      -431602080. -431602080. -431602080. -431602080. -431602080.
      -431602080. -431602080. -431602080. -431602080. -431602080.
      -431602080. -431602080. -431602080. -431602080. -431602080.
      -431602080. -431602080. -431602080. -431602080. -431602080.
      -431602080. -431602080. -431602080. -431602080. -431602080.
      -431602080. -431602080. -431602080. -431602080. -431602080.
      -431602080. -431602080. -431602080. -431602080. -431602080.
      -431602080. -431602080. -431602080. -431602080. -431602080.
      -431602080. -431602080. -431602080. -431602080. -431602080.
      -431602080. -431602080. -431602080. -431602080. -431602080.
      -431602080. -431602080. -431602080. -431602080. -431602080.
      -431602080. -431602080. -431602080. -431602080. -431602080.
      -431602080. -431602080. -431602080. -431602080. -431602080.
      -431602080. -431602080. -431602080. -431602080. -431602080.
      -431602080. -431602080. -431602080. -431602080. -431602080.
      -431602080. -431602080. -431602080. -431602080. -431602080.
      -431602080. -431602080. -431602080. -431602080. -431602080.
      -431602080. -431602080. -431602080. -431602080. -431602080.
      -431602080. -431602080. -431602080. -431602080. -431602080.
      -431602080. -431602080. -431602080. -431602080. -431602080.
      -431602080. -431602080. -431602080. -431602080. -431602080.
      -431602080. -431602080. -431602080. -431602080. -431602080.
      -431602080. -431602080. -431602080. -431602080. -431602080.
      -431602080. -431602080. -431602080. -431602080. -431602080.
      -431602080. -431602080. -431602080. -431602080. -431602080.
      -431602080. -431602080. -431602080. -431602080. -431602080.
      -431602080. -431602080. -431602080. -431602080. -431602080.
      -431602080. -431602080. -431602080. -431602080. -431602080.
      -431602080. -431602080. -431602080. -431602080. -431602080.
      -431602080. -431602080. -431602080. -431602080. -431602080.
      -431602080. -431602080. -431602080. -431602080. -431602080.
      -431602080. -431602080. -431602080. -431602080. -431602080.
      -431602080. -431602080. -431602080. -431602080. -431602080.
      -431602080. -431602080. -431602080. -431602080. -431602080.
      -431602080. -431602080. -431602080. -431602080. -431602080.
      -431602080. -431602080. -431602080. -431602080. -431602080.
      -431602080. -431602080. -431602080. -431602080. -431602080.
      -431602080. -431602080. -431602080. -431602080. -431602080.
      -431602080. -431602080. -431602080. -431602080. -431602080.
      -431602080. -431602080. -431602080. -431602080. -431602080.
      -431602080. -431602080. -431602080. -431602080. -431602080.
      -431602080. -431602080. -431602080. -431602080. -431602080.
      -431602080. -431602080. -431602080. -431602080. -431602080.
      -431602080. -431602080. -431602080. -431602080. -431602080.
      -431602080. -431602080. -431602080. -431602080. -431602080.
      -431602080. -431602080. -431602080. -431602080. -431602080.
      -431602080. -431602080. -431602080. -431602080. -431602080.
      -431602080. -431602080. -431602080. -431602080. -431602080.
      -431602080. -431602080. -431602080. -431602080. -431602080.
      -431602080. -431602080. -431602080. -431602080. -431602080.
      -431602080. -431602080. -431602080. -431602080. -431602080.
      -431602080. -431602080. -431602080. -431602080. -431602080.
      -431602080. -431602080. -431602080. -431602080. -431602080.
      -431602080. -431602080. -431602080. -431602080. -431602080.
      -431602080. -431602080. -431602080. -431602080. -431602080.
      -431602080. -431602080. -431602080. -431602080. -431602080.
      -431602080. -431602080. -431602080. -431602080. -431602080.
      -431602080. -431602080. -431602080. -431602080. -431602080.
      -431602080. -431602080. -431602080. -431602080. -431602080.
      -431602080. -431602080. -431602080. -431602080. -431602080.
      -431602080. -431602080. -431602080. -431602080. -431602080.
      -431602080. -431602080. -431602080. -431602080. -431602080.
      -431602080. -431602080. -431602080. -431602080. -431602080.
      -431602080. -431602080. -431602080. -431602080. -431602080.
      -431602080. -431602080. -431602080. -431602080. -431602080.
      -431602080. -431602080. -431602080. -431602080. -431602080.
      -431602080. -431602080. -431602080. -431602080. -431602080.
      -431602080. -431602080. -431602080. -431602080. -431602080.
      -431602080. -431602080. -431602080. -431602080. -431602080.
      -431602080. -431602080. -431602080. -431602080. -431602080.
      -431602080. -431602080. -431602080. -431602080. -431602080.
      -431602080. -431602080. -431602080. -431602080. -431602080.
      -431602080. -431602080. -431602080. -431602080. -431602080.
      -431602080. -431602080. -431602080. -431602080. -431602080.
      -431602080. -431602080. -431602080. -431602080. -431602080.
      -431602080. -431602080. -431602080. -431602080. -431602080.
      -431602080. -431602080. -431602080. -431602080. -431602080.
      -431602080. -431602080. -431602080. -431602080. -431602080.
      -431602080. -431602080. -431602080. -431602080. -431602080.
      -431602080. -431602080. -431602080. -431602080. -431602080.
      -431602080. -431602080. -431602080. -431602080. -431602080.
      -431602080. -431602080. -431602080. -431602080. -431602080.
      -431602080. -431602080. -431602080. -431602080. -431602080.
      -431602080. -431602080. -431602080. -431602080. -431602080.
      -431602080. -431602080. -431602080. -431602080. -431602080.
      -431602080. -431602080. -431602080. -431602080. -431602080.
      -431602080. -431602080. -431602080. -431602080. -431602080.
      -431602080. -431602080. -431602080. -431602080. -431602080.
      -431602080. -431602080. -431602080. -431602080. -431602080.
      -431602080. -431602080. -431602080. -431602080. -431602080.
      -431602080. -431602080. -431602080. -431602080. -431602080.
      -431602080. -431602080. -431602080. -431602080. -431602080.
      -431602080. -431602080. -431602080. -431602080. -431602080.
      -431602080. -431602080. -431602080. -431602080. -431602080.
      -431602080. -431602080. -431602080. -431602080. -431602080.
      -431602080. -431602080. -431602080. -431602080. -431602080.
      -431602080. -431602080. -431602080. -431602080. -431602080.
      -431602080. -431602080. -431602080. -431602080. -431602080.
      -431602080. -431602080. -431602080. -431602080. -431602080.
      -431602080. -431602080. -431602080. -431602080. -431602080.
      -431602080. -431602080. -431602080. -431602080. -431602080.
      -431602080. -431602080. -431602080. -431602080. -431602080.
      -431602080. -431602080. -431602080. -431602080. -431602080.
      -431602080. -431602080. -431602080. -431602080. -431602080.
      -431602080. -431602080. -431602080. -431602080. -431602080.
      -431602080. -431602080. -431602080. -431602080. -431602080.
      -431602080. -431602080. -431602080. -431602080. -431602080.
      -431602080. -431602080. -431602080. -431602080. -431602080.
      -431602080. -431602080. -431602080. -431602080. -431602080.
      -431602080. -431602080. -431602080. -431602080. -431602080.
      -431602080. -431602080. -431602080. -431602080. -431602080.
      -431602080. -431602080. -431602080. -431602080. -431602080.
      -431602080. -431602080. -431602080. -431602080. -431602080.
      -431602080. -431602080. -431602080. -431602080. -431602080.
      -431602080. -431602080. -431602080. -431602080. -431602080.
      -431602080. -431602080. -431602080. -431602080. -431602080.
      -431602080. -431602080. -431602080. -431602080. -431602080.
      -431602080. -431602080. -431602080. -431602080. -431602080.
      -431602080. -431602080. -431602080. -431602080. -431602080.
      -431602080. -431602080. -431602080. -431602080. -431602080.
      -431602080. -431602080. -431602080. -431602080. -431602080.
      -431602080. -431602080. -431602080. -431602080. -431602080.
      -431602080. -431602080. -431602080. -431602080. -431602080.
      -431602080. -431602080. -431602080. -431602080. -431602080.
      -431602080. -431602080. -431602080. -431602080. -431602080.
      -431602080. -431602080. -431602080. -431602080. -431602080.
      -431602080. -431602080. -431602080. -431602080. -431602080.
      -431602080. -431602080. -431602080. -431602080. -431602080.
      -431602080. -431602080. -431602080. -431602080. -431602080.
      -431602080. -431602080. -431602080. -431602080. -431602080.
      -431602080. -431602080. -431602080. -431602080. -431602080.
      -431602080. -431602080. -431602080. -431602080. -431602080.
      -431602080. -431602080. -431602080. -431602080. -431602080.
      -431602080. -431602080. -431602080. -431602080. -431602080.
      -431602080. -431602080. -431602080. -431602080. -431602080.
      -431602080. -431602080. -431602080. -431602080. -431602080.
      -431602080. -431602080. -431602080. -431602080. -431602080.
      -431602080. -431602080. -431602080. -431602080. -431602080.
      -431602080. -431602080. -431602080. -431602080. -431602080.
      -431602080. -431602080. -431602080. -431602080. -431602080.
      -431602080. -431602080. -431602080. -431602080. -431602080.
      -431602080. -431602080. -431602080. -431602080. -431602080.
      -431602080. -431602080. -431602080. -431602080. -431602080.
      -431602080. -431602080. -431602080. -431602080. -431602080.
      -431602080. -431602080. -431602080. -431602080. -431602080.
      -431602080. -431602080. -431602080. -431602080. -431602080.
      -431602080. -431602080. -431602080. -431602080. -431602080.
      -431602080. -431602080. -431602080. -431602080. -431602080.
      -431602080. -431602080. -431602080. -431602080. -431602080.
      -431602080. -431602080. -431602080. -431602080. -431602080.
      -431602080. -431602080. -431602080. -431602080. -431602080.
      -431602080. -431602080. -431602080. -431602080. -431602080.
      -431602080. -431602080. -431602080. -431602080. -431602080.
      -431602080. -431602080. -431602080. -431602080. -431602080.
      -431602080. -431602080. -431602080. -431602080. -431602080.
      -431602080. -431602080. -431602080. -431602080. -431602080.
      -431602080. -431602080. -431602080. -431602080. -431602080.
      -431602080. -431602080. -431602080. -431602080. -431602080.
      -431602080. -431602080. -431602080. -431602080. -431602080.
      -431602080. -431602080. -431602080. -431602080. -431602080.
      -431602080. -431602080. -431602080. -431602080. -431602080.
      -431602080. -431602080. -431602080. -431602080. -431602080.
      -431602080. -431602080. -431602080. -431602080. -431602080.
      -431602080. -431602080. -431602080. -431602080. -431602080.
      -431602080. -431602080. -431602080. -431602080. -431602080.
      -431602080. -431602080. -431602080. -431602080. -431602080.
      -431602080. -431602080. -431602080. -431602080. -431602080.
      -431602080. -431602080. -431602080. -431602080. -431602080.
      -431602080. -431602080. -431602080. -431602080. -431602080.
      -431602080. -431602080. -431602080. -431602080. -431602080.
      -431602080. -431602080. -431602080. -431602080. -431602080.
      -431602080. -431602080. -431602080. -431602080. -431602080.
      -431602080. -431602080. -431602080. -431602080. -431602080.
      -431602080. -431602080. -431602080. -431602080. -431602080.
      -431602080. -431602080. -431602080. -431602080. -431602080.
      -431602080. -431602080. -431602080. -431602080. -431602080.
      -431602080. -431602080. -431602080. -431602080. -431602080.
      -431602080. -431602080. -431602080. -431602080. -431602080.
      -431602080. -431602080. -431602080. -431602080. -431602080.
      -431602080. -431602080. -431602080. -431602080. -431602080.
      -431602080. -431602080. -431602080. -431602080. -431602080.
      -431602080. -431602080. -431602080. -431602080. -431602080.
      -431602080. -431602080. -431602080. -431602080. -431602080.
      -431602080. -431602080. -431602080. -431602080. -431602080.
      -431602080. -431602080. -431602080. -431602080. -431602080.
      -431602080. -431602080. -431602080. -431602080. -431602080.
      -431602080. -431602080. -431602080. -431602080. -431602080.
      -431602080. -431602080. -431602080. -431602080. -431602080.
      -431602080. -431602080. -431602080. -431602080. -431602080.
      -431602080. -431602080. -431602080. -431602080. -431602080.
      -431602080. -431602080. -431602080. -431602080. -431602080.
      -431602080. -431602080. -431602080. -431602080. -431602080.
      -431602080. -431602080. -431602080. -431602080. -431602080.
      -431602080. -431602080. -431602080. -431602080. -431602080.
      -431602080. -431602080. -431602080. -431602080. -431602080.
      -431602080. -431602080. -431602080. -431602080. -431602080.
      -431602080. -431602080. -431602080. -431602080. -431602080.
      -431602080. -431602080. -431602080. -431602080. -431602080.
      -431602080. -431602080. -431602080. -431602080. -431602080.
      -431602080. -431602080. -431602080. -431602080. -431602080.
      -431602080. -431602080. -431602080. -431602080. -431602080.
      -431602080. -431602080. -431602080. -431602080. -431602080.
      -431602080. -431602080. -431602080. -431602080. -431602080.
      -431602080. -431602080. -431602080. -431602080. -431602080.
      -431602080. -431602080. -431602080. -431602080. -431602080.
      -431602080. -431602080. -431602080. -431602080. -431602080.
      -431602080. -431602080. -431602080. -431602080. -431602080.
      -431602080. -431602080. -431602080. -431602080. -431602080.
      -431602080. -431602080. -431602080. -431602080. -431602080.
      -431602080. -431602080. -431602080. -431602080. -431602080.
      -431602080. -431602080. -431602080. -431602080. -431602080.
      -431602080. -431602080. -431602080. -431602080. -431602080.
      -431602080. -431602080. -431602080. -431602080. -431602080.
      -431602080. -431602080. -431602080. -431602080. -431602080.
      -431602080. -431602080. -431602080. -431602080. -431602080.
      -431602080. -431602080. -431602080. -431602080. -431602080.
      -431602080. -431602080. -431602080. -431602080. -431602080.
      -431602080. -431602080. -431602080. -431602080. -431602080.
      -431602080. -431602080. -431602080. -431602080. -431602080.
      -431602080. -431602080. -431602080. -431602080. -431602080.
      -431602080. -431602080. -431602080. -431602080. -431602080.
      -431602080. -431602080. -431602080. -431602080. -431602080.
      -431602080. -431602080. -431602080. -431602080. -431602080.</_>
    <_>
      -431602080. -431602080. -431602080. -431602080. -431602080.
      -431602080. -431602080. -431602080. -431602080. -431602080.
      -431602080. -431602080. -431602080. -431602080. -431602080.
      -431602080. -431602080. -431602080. -431602080. -431602080.
      -431602080. -431602080. -431602080. -431602080. -431602080.
      -431602080. -431602080. -431602080. -431602080. -431602080.
      -431602080. -431602080. -431602080. -431602080. -431602080.
      -431602080. -431602080. -431602080. -431602080. -431602080.
      -431602080. -431602080. -431602080. -431602080. -431602080.
      -431602080. -431602080. -431602080. -431602080. -431602080.
      -431602080. -431602080. -431602080. -431602080. -431602080.
      -431602080. -431602080. -431602080. -431602080. -431602080.
      -431602080. -431602080. -431602080. -431602080. -431602080.
      -431602080. -431602080. -431602080. -431602080. -431602080.
      -431602080. -431602080. -431602080. -431602080. -431602080.
      -431602080. -431602080. -431602080. -431602080. -431602080.
      -431602080. -431602080. -431602080. -431602080. -431602080.
      -431602080. -431602080. -431602080. -431602080. -431602080.
      -431602080. -431602080. -431602080. -431602080. -431602080.
      -431602080. -431602080. -431602080. -431602080. -431602080.
      -431602080. -431602080. -431602080. -431602080. -431602080.
      -431602080. -431602080. -431602080. -431602080. -431602080.
      -431602080. -431602080. -431602080. -431602080. -431602080.
      -431602080. -431602080. -431602080. -431602080. -431602080.
      -431602080. -431602080. -431602080. -431602080. -431602080.
      -431602080. -431602080. -431602080. -431602080. -431602080.
      -431602080. -431602080. -431602080. -431602080. -431602080.
      -431602080. -431602080. -431602080. -431602080. -431602080.
      -431602080. -431602080. -431602080. -431602080. -431602080.
      -431602080. -431602080. -431602080. -431602080. -431602080.
      -431602080. -431602080. -431602080. -431602080. -431602080.
      -431602080. -431602080. -431602080. -431602080. -431602080.
      -431602080. -431602080. -431602080. -431602080. -431602080.
      -431602080. -431602080. -431602080. -431602080. -431602080.
      -431602080. -431602080. -431602080. -431602080. -431602080.
      -431602080. -431602080. -431602080. -431602080. -431602080.
      -431602080. -431602080. -431602080. -431602080. -431602080.
      -431602080. -431602080. -431602080. -431602080. -431602080.
      -431602080. -431602080. -431602080. -431602080. -431602080.
      -431602080. -431602080. -431602080. -431602080. -431602080.
      -431602080. -431602080. -431602080. -431602080. -431602080.
      -431602080. -431602080. -431602080. -431602080. -431602080.
      -431602080. -431602080. -431602080. -431602080. -431602080.
      -431602080. -431602080. -431602080. -431602080. -431602080.
      -431602080. -431602080. -431602080. -431602080. -431602080.
      -431602080. -431602080. -431602080. -431602080. -431602080.
      -431602080. -431602080. -431602080. -431602080. -431602080.
      -431602080. -431602080. -431602080. -431602080. -431602080.
      -431602080. -431602080. -431602080. -431602080. -431602080.
      -431602080. -431602080. -431602080. -431602080. -431602080.
      -431602080. -431602080. -431602080. -431602080. -431602080.
      -431602080. -431602080. -431602080. -431602080. -431602080.
      -431602080. -431602080. -431602080. -431602080. -431602080.
      -431602080. -431602080. -431602080. -431602080. -431602080.
      -431602080. -431602080. -431602080. -431602080. -431602080.
      -431602080. -431602080. -431602080. -431602080. -431602080.
      -431602080. -431602080. -431602080. -431602080. -431602080.
      -431602080. -431602080. -431602080. -431602080. -431602080.
      -431602080. -431602080. -431602080. -431602080. -431602080.
      -431602080. -431602080. -431602080. -431602080. -431602080.
      -431602080. -431602080. -431602080. -431602080. -431602080.
      -431602080. -431602080. -431602080. -431602080. -431602080.
      -431602080. -431602080. -431602080. -431602080. -431602080.
      -431602080. -431602080. -431602080. -431602080. -431602080.
      -431602080. -431602080. -431602080. -431602080. -431602080.
      -431602080. -431602080. -431602080. -431602080. -431602080.
      -431602080. -431602080. -431602080. -431602080. -431602080.
      -431602080. -431602080. -431602080. -431602080. -431602080.
      -431602080. -431602080. -431602080. -431602080. -431602080.
      -431602080. -431602080. -431602080. -431602080. -431602080.
      -431602080. -431602080. -431602080. -431602080. -431602080.
      -431602080. -431602080. -431602080. -431602080. -431602080.
      -431602080. -431602080. -431602080. -431602080. -431602080.
      -431602080. -431602080. -431602080. -431602080. -431602080.
      -431602080. -431602080. -431602080. -431602080. -431602080.
      -431602080. -431602080. -431602080. -431602080. -431602080.
      -431602080. -431602080. -431602080. -431602080. -431602080.
      -431602080. -431602080. -431602080. -431602080. -431602080.
      -431602080. -431602080. -431602080. -431602080. -431602080.
      -431602080. -431602080. -431602080. -431602080. -431602080.
      -431602080. -431602080. -431602080. -431602080. -431602080.
      -431602080. -431602080. -431602080. -431602080. -431602080.
      -431602080. -431602080. -431602080. -431602080. -431602080.
      -431602080. -431602080. -431602080. -431602080. -431602080.
      -431602080. -431602080. -431602080. -431602080. -431602080.
      -431602080. -431602080. -431602080. -431602080. -431602080.
      -431602080. -431602080. -431602080. -431602080. -431602080.
      -431602080. -431602080. -431602080. -431602080. -431602080.
      -431602080. -431602080. -431602080. -431602080. -431602080.
      -431602080. -431602080. -431602080. -431602080. -431602080.
      -431602080. -431602080. -431602080. -431602080. -431602080.
      -431602080. -431602080. -431602080. -431602080. -431602080.
      -431602080. -431602080. -431602080. -431602080. -431602080.
      -431602080. -431602080. -431602080. -431602080. -431602080.
      -431602080. -431602080. -431602080. -431602080. -431602080.
      -431602080. -431602080. -431602080. -431602080. -431602080.
      -431602080. -431602080. -431602080. -431602080. -431602080.
      -431602080. -431602080. -431602080. -431602080. -431602080.
      -431602080. -431602080. -431602080. -431602080. -431602080.
      -431602080. -431602080. -431602080. -431602080. -431602080.
      -431602080. -431602080. -431602080. -431602080. -431602080.
      -431602080. -431602080. -431602080. -431602080. -431602080.
      -431602080. -431602080. -431602080. -431602080. -431602080.
      -431602080. -431602080. -431602080. -431602080. -431602080.
      -431602080. -431602080. -431602080. -431602080. -431602080.
      -431602080. -431602080. -431602080. -431602080. -431602080.
      -431602080. -431602080. -431602080. -431602080. -431602080.
      -431602080. -431602080. -431602080. -431602080. -431602080.
      -431602080. -431602080. -431602080. -431602080. -431602080.
      -431602080. -431602080. -431602080. -431602080. -431602080.
      -431602080. -431602080. -431602080. -431602080. -431602080.
      -431602080. -431602080. -431602080. -431602080. -431602080.
      -431602080. -431602080. -431602080. -431602080. -431602080.
      -431602080. -431602080. -431602080. -431602080. -431602080.
      -431602080. -431602080. -431602080. -431602080. -431602080.
      -431602080. -431602080. -431602080. -431602080. -431602080.
      -431602080. -431602080. -431602080. -431602080. -431602080.
      -431602080. -431602080. -431602080. -431602080. -431602080.
      -431602080. -431602080. -431602080. -431602080. -431602080.
      -431602080. -431602080. -431602080. -431602080. -431602080.
      -431602080. -431602080. -431602080. -431602080. -431602080.
      -431602080. -431602080. -431602080. -431602080. -431602080.
      -431602080. -431602080. -431602080. -431602080. -431602080.
      -431602080. -431602080. -431602080. -431602080. -431602080.
      -431602080. -431602080. -431602080. -431602080. -431602080.
      -431602080. -431602080. -431602080. -431602080. -431602080.
      -431602080. -431602080. -431602080. -431602080. -431602080.
      -431602080. -431602080. -431602080. -431602080. -431602080.
      -431602080. -431602080. -431602080. -431602080. -431602080.
      -431602080. -431602080. -431602080. -431602080. -431602080.
      -431602080. -431602080. -431602080. -431602080. -431602080.
      -431602080. -431602080. -431602080. -431602080. -431602080.
      -431602080. -431602080. -431602080. -431602080. -431602080.
      -431602080. -431602080. -431602080. -431602080. -431602080.
      -431602080. -431602080. -431602080. -431602080. -431602080.
      -431602080. -431602080. -431602080. -431602080. -431602080.
      -431602080. -431602080. -431602080. -431602080. -431602080.
      -431602080. -431602080. -431602080. -431602080. -431602080.
      -431602080. -431602080. -431602080. -431602080. -431602080.
      -431602080. -431602080. -431602080. -431602080. -431602080.
      -431602080. -431602080. -431602080. -431602080. -431602080.
      -431602080. -431602080. -431602080. -431602080. -431602080.
      -431602080. -431602080. -431602080. -431602080. -431602080.
      -431602080. -431602080. -431602080. -431602080. -431602080.
      -431602080. -431602080. -431602080. -431602080. -431602080.
      -431602080. -431602080. -431602080. -431602080. -431602080.
      -431602080. -431602080. -431602080. -431602080. -431602080.
      -431602080. -431602080. -431602080. -431602080. -431602080.
      -431602080. -431602080. -431602080. -431602080. -431602080.
      -431602080. -431602080. -431602080. -431602080. -431602080.
      -431602080. -431602080. -431602080. -431602080. -431602080.
      -431602080. -431602080. -431602080. -431602080. -431602080.
      -431602080. -431602080. -431602080. -431602080. -431602080.
      -431602080. -431602080. -431602080. -431602080. -431602080.
      -431602080. -431602080. -431602080. -431602080. -431602080.
      -431602080. -431602080. -431602080. -431602080. -431602080.
      -431602080. -431602080. -431602080. -431602080. -431602080.
      -431602080. -431602080. -431602080. -431602080. -431602080.
      -431602080. -431602080. -431602080. -431602080. -431602080.
      -431602080. -431602080. -431602080. -431602080. -431602080.
      -431602080. -431602080. -431602080. -431602080. -431602080.
      -431602080. -431602080. -431602080. -431602080. -431602080.
      -431602080. -431602080. -431602080. -431602080. -431602080.
      -431602080. -431602080. -431602080. -431602080. -431602080.
      -431602080. -431602080. -431602080. -431602080. -431602080.
      -431602080. -431602080. -431602080. -431602080. -431602080.
      -431602080. -431602080. -431602080. -431602080. -431602080.
      -431602080. -431602080. -431602080. -431602080. -431602080.
      -431602080. -431602080. -431602080. -431602080. -431602080.
      -431602080. -431602080. -431602080. -431602080. -431602080.
      -431602080. -431602080. -431602080. -431602080. -431602080.
      -431602080. -431602080. -431602080. -431602080. -431602080.
      -431602080. -431602080. -431602080. -431602080. -431602080.
      -431602080. -431602080. -431602080. -431602080. -431602080.
      -431602080. -431602080. -431602080. -431602080. -431602080.
      -431602080. -431602080. -431602080. -431602080. -431602080.
      -431602080. -431602080. -431602080. -431602080. -431602080.
      -431602080. -431602080. -431602080. -431602080. -431602080.
      -431602080. -431602080. -431602080. -431602080. -431602080.
      -431602080. -431602080. -431602080. -431602080. -431602080.
      -431602080. -431602080. -431602080. -431602080. -431602080.
      -431602080. -431602080. -431602080. -431602080. -431602080.
      -431602080. -431602080. -431602080. -431602080. -431602080.
      -431602080. -431602080. -431602080. -431602080. -431602080.
      -431602080. -431602080. -431602080. -431602080. -431602080.
      -431602080. -431602080. -431602080. -431602080. -431602080.
      -431602080. -431602080. -431602080. -431602080. -431602080.
      -431602080. -431602080. -431602080. -431602080. -431602080.
      -431602080. -431602080. -431602080. -431602080. -431602080.
      -431602080. -431602080. -431602080. -431602080. -431602080.
      -431602080. -431602080. -431602080. -431602080. -431602080.
      -431602080. -431602080. -431602080. -431602080. -431602080.
      -431602080. -431602080. -431602080. -431602080. -431602080.
      -431602080. -431602080. -431602080. -431602080. -431602080.
      -431602080. -431602080. -431602080. -431602080. -431602080.
      -431602080. -431602080. -431602080. -431602080. -431602080.
      -431602080. -431602080. -431602080. -431602080. -431602080.
      -431602080. -431602080. -431602080. -431602080. -431602080.
      -431602080. -431602080. -431602080. -431602080. -431602080.
      -431602080. -431602080. -431602080. -431602080. -431602080.
      -431602080. -431602080. -431602080. -431602080. -431602080.
      -431602080. -431602080. -431602080. -431602080. -431602080.
      -431602080. -431602080. -431602080. -431602080. -431602080.
      -431602080. -431602080. -431602080. -431602080. -431602080.
      -431602080. -431602080. -431602080. -431602080. -431602080.
      -431602080. -431602080. -431602080. -431602080. -431602080.
      -431602080. -431602080. -431602080. -431602080. -431602080.
      -431602080. -431602080. -431602080. -431602080. -431602080.
      -431602080. -431602080. -431602080. -431602080. -431602080.
      -431602080. -431602080. -431602080. -431602080. -431602080.
      -431602080. -431602080. -431602080. -431602080. -431602080.
      -431602080. -431602080. -431602080. -431602080. -431602080.
      -431602080. -431602080. -431602080. -431602080. -431602080.
      -431602080. -431602080. -431602080. -431602080. -431602080.
      -431602080. -431602080. -431602080. -431602080. -431602080.
      -431602080. -431602080. -431602080. -431602080. -431602080.
      -431602080. -431602080. -431602080. -431602080. -431602080.
      -431602080. -431602080. -431602080. -431602080. -431602080.
      -431602080. -431602080. -431602080. -431602080. -431602080.
      -431602080. -431602080. -431602080. -431602080. -431602080.
      -431602080. -431602080. -431602080. -431602080. -431602080.
      -431602080. -431602080. -431602080. -431602080. -431602080.
      -431602080. -431602080. -431602080. -431602080. -431602080.
      -431602080. -431602080. -431602080. -431602080. -431602080.</_>
    <_>
      -431602080. -431602080. -431602080. -431602080. -431602080.
      -431602080. -431602080. -431602080. -431602080. -431602080.
      -431602080. -431602080. -431602080. -431602080. -431602080.
      -431602080. -431602080. -431602080. -431602080. -431602080.
      -431602080. -431602080. -431602080. -431602080. -431602080.
      -431602080. -431602080. -431602080. -431602080. -431602080.
      -431602080. -431602080. -431602080. -431602080. -431602080.
      -431602080. -431602080. -431602080. -431602080. -431602080.
      -431602080. -431602080. -431602080. -431602080. -431602080.
      -431602080. -431602080. -431602080. -431602080. -431602080.
      -431602080. -431602080. -431602080. -431602080. -431602080.
      -431602080. -431602080. -431602080. -431602080. -431602080.
      -431602080. -431602080. -431602080. -431602080. -431602080.
      -431602080. -431602080. -431602080. -431602080. -431602080.
      -431602080. -431602080. -431602080. -431602080. -431602080.
      -431602080. -431602080. -431602080. -431602080. -431602080.
      -431602080. -431602080. -431602080. -431602080. -431602080.
      -431602080. -431602080. -431602080. -431602080. -431602080.
      -431602080. -431602080. -431602080. -431602080. -431602080.
      -431602080. -431602080. -431602080. -431602080. -431602080.
      -431602080. -431602080. -431602080. -431602080. -431602080.
      -431602080. -431602080. -431602080. -431602080. -431602080.
      -431602080. -431602080. -431602080. -431602080. -431602080.
      -431602080. -431602080. -431602080. -431602080. -431602080.
      -431602080. -431602080. -431602080. -431602080. -431602080.
      -431602080. -431602080. -431602080. -431602080. -431602080.
      -431602080. -431602080. -431602080. -431602080. -431602080.
      -431602080. -431602080. -431602080. -431602080. -431602080.
      -431602080. -431602080. -431602080. -431602080. -431602080.
      -431602080. -431602080. -431602080. -431602080. -431602080.
      -431602080. -431602080. -431602080. -431602080. -431602080.
      -431602080. -431602080. -431602080. -431602080. -431602080.
      -431602080. -431602080. -431602080. -431602080. -431602080.
      -431602080. -431602080. -431602080. -431602080. -431602080.
      -431602080. -431602080. -431602080. -431602080. -431602080.
      -431602080. -431602080. -431602080. -431602080. -431602080.
      -431602080. -431602080. -431602080. -431602080. -431602080.
      -431602080. -431602080. -431602080. -431602080. -431602080.
      -431602080. -431602080. -431602080. -431602080. -431602080.
      -431602080. -431602080. -431602080. -431602080. -431602080.
      -431602080. -431602080. -431602080. -431602080. -431602080.
      -431602080. -431602080. -431602080. -431602080. -431602080.
      -431602080. -431602080. -431602080. -431602080. -431602080.
      -431602080. -431602080. -431602080. -431602080. -431602080.
      -431602080. -431602080. -431602080. -431602080. -431602080.
      -431602080. -431602080. -431602080. -431602080. -431602080.
      -431602080. -431602080. -431602080. -431602080. -431602080.
      -431602080. -431602080. -431602080. -431602080. -431602080.
      -431602080. -431602080. -431602080. -431602080. -431602080.
      -431602080. -431602080. -431602080. -431602080. -431602080.
      -431602080. -431602080. -431602080. -431602080. -431602080.
      -431602080. -431602080. -431602080. -431602080. -431602080.
      -431602080. -431602080. -431602080. -431602080. -431602080.
      -431602080. -431602080. -431602080. -431602080. -431602080.
      -431602080. -431602080. -431602080. -431602080. -431602080.
      -431602080. -431602080. -431602080. -431602080. -431602080.
      -431602080. -431602080. -431602080. -431602080. -431602080.
      -431602080. -431602080. -431602080. -431602080. -431602080.
      -431602080. -431602080. -431602080. -431602080. -431602080.
      -431602080. -431602080. -431602080. -431602080. -431602080.
      -431602080. -431602080. -431602080. -431602080. -431602080.
      -431602080. -431602080. -431602080. -431602080. -431602080.
      -431602080. -431602080. -431602080. -431602080. -431602080.
      -431602080. -431602080. -431602080. -431602080. -431602080.
      -431602080. -431602080. -431602080. -431602080. -431602080.
      -431602080. -431602080. -431602080. -431602080. -431602080.
      -431602080. -431602080. -431602080. -431602080. -431602080.
      -431602080. -431602080. -431602080. -431602080. -431602080.
      -431602080. -431602080. -431602080. -431602080. -431602080.
      -431602080. -431602080. -431602080. -431602080. -431602080.
      -431602080. -431602080. -431602080. -431602080. -431602080.
      -431602080. -431602080. -431602080. -431602080. -431602080.
      -431602080. -431602080. -431602080. -431602080. -431602080.
      -431602080. -431602080. -431602080. -431602080. -431602080.
      -431602080. -431602080. -431602080. -431602080. -431602080.
      -431602080. -431602080. -431602080. -431602080. -431602080.
      -431602080. -431602080. -431602080. -431602080. -431602080.
      -431602080. -431602080. -431602080. -431602080. -431602080.
      -431602080. -431602080. -431602080. -431602080. -431602080.
      -431602080. -431602080. -431602080. -431602080. -431602080.
      -431602080. -431602080. -431602080. -431602080. -431602080.
      -431602080. -431602080. -431602080. -431602080. -431602080.
      -431602080. -431602080. -431602080. -431602080. -431602080.
      -431602080. -431602080. -431602080. -431602080. -431602080.
      -431602080. -431602080. -431602080. -431602080. -431602080.
      -431602080. -431602080. -431602080. -431602080. -431602080.
      -431602080. -431602080. -431602080. -431602080. -431602080.
      -431602080. -431602080. -431602080. -431602080. -431602080.
      -431602080. -431602080. -431602080. -431602080. -431602080.
      -431602080. -431602080. -431602080. -431602080. -431602080.
      -431602080. -431602080. -431602080. -431602080. -431602080.
      -431602080. -431602080. -431602080. -431602080. -431602080.
      -431602080. -431602080. -431602080. -431602080. -431602080.
      -431602080. -431602080. -431602080. -431602080. -431602080.
      -431602080. -431602080. -431602080. -431602080. -431602080.
      -431602080. -431602080. -431602080. -431602080. -431602080.
      -431602080. -431602080. -431602080. -431602080. -431602080.
      -431602080. -431602080. -431602080. -431602080. -431602080.
      -431602080. -431602080. -431602080. -431602080. -431602080.
      -431602080. -431602080. -431602080. -431602080. -431602080.
      -431602080. -431602080. -431602080. -431602080. -431602080.
      -431602080. -431602080. -431602080. -431602080. -431602080.
      -431602080. -431602080. -431602080. -431602080. -431602080.
      -431602080. -431602080. -431602080. -431602080. -431602080.
      -431602080. -431602080. -431602080. -431602080. -431602080.
      -431602080. -431602080. -431602080. -431602080. -431602080.
      -431602080. -431602080. -431602080. -431602080. -431602080.
      -431602080. -431602080. -431602080. -431602080. -431602080.
      -431602080. -431602080. -431602080. -431602080. -431602080.
      -431602080. -431602080. -431602080. -431602080. -431602080.
      -431602080. -431602080. -431602080. -431602080. -431602080.
      -431602080. -431602080. -431602080. -431602080. -431602080.
      -431602080. -431602080. -431602080. -431602080. -431602080.
      -431602080. -431602080. -431602080. -431602080. -431602080.
      -431602080. -431602080. -431602080. -431602080. -431602080.
      -431602080. -431602080. -431602080. -431602080. -431602080.
      -431602080. -431602080. -431602080. -431602080. -431602080.
      -431602080. -431602080. -431602080. -431602080. -431602080.
      -431602080. -431602080. -431602080. -431602080. -431602080.
      -431602080. -431602080. -431602080. -431602080. -431602080.
      -431602080. -431602080. -431602080. -431602080. -431602080.
      -431602080. -431602080. -431602080. -431602080. -431602080.
      -431602080. -431602080. -431602080. -431602080. -431602080.
      -431602080. -431602080. -431602080. -431602080. -431602080.
      -431602080. -431602080. -431602080. -431602080. -431602080.
      -431602080. -431602080. -431602080. -431602080. -431602080.
      -431602080. -431602080. -431602080. -431602080. -431602080.
      -431602080. -431602080. -431602080. -431602080. -431602080.
      -431602080. -431602080. -431602080. -431602080. -431602080.
      -431602080. -431602080. -431602080. -431602080. -431602080.
      -431602080. -431602080. -431602080. -431602080. -431602080.
      -431602080. -431602080. -431602080. -431602080. -431602080.
      -431602080. -431602080. -431602080. -431602080. -431602080.
      -431602080. -431602080. -431602080. -431602080. -431602080.
      -431602080. -431602080. -431602080. -431602080. -431602080.
      -431602080. -431602080. -431602080. -431602080. -431602080.
      -431602080. -431602080. -431602080. -431602080. -431602080.
      -431602080. -431602080. -431602080. -431602080. -431602080.
      -431602080. -431602080. -431602080. -431602080. -431602080.
      -431602080. -431602080. -431602080. -431602080. -431602080.
      -431602080. -431602080. -431602080. -431602080. -431602080.
      -431602080. -431602080. -431602080. -431602080. -431602080.
      -431602080. -431602080. -431602080. -431602080. -431602080.
      -431602080. -431602080. -431602080. -431602080. -431602080.
      -431602080. -431602080. -431602080. -431602080. -431602080.
      -431602080. -431602080. -431602080. -431602080. -431602080.
      -431602080. -431602080. -431602080. -431602080. -431602080.
      -431602080. -431602080. -431602080. -431602080. -431602080.
      -431602080. -431602080. -431602080. -431602080. -431602080.
      -431602080. -431602080. -431602080. -431602080. -431602080.
      -431602080. -431602080. -431602080. -431602080. -431602080.
      -431602080. -431602080. -431602080. -431602080. -431602080.
      -431602080. -431602080. -431602080. -431602080. -431602080.
      -431602080. -431602080. -431602080. -431602080. -431602080.
      -431602080. -431602080. -431602080. -431602080. -431602080.
      -431602080. -431602080. -431602080. -431602080. -431602080.
      -431602080. -431602080. -431602080. -431602080. -431602080.
      -431602080. -431602080. -431602080. -431602080. -431602080.
      -431602080. -431602080. -431602080. -431602080. -431602080.
      -431602080. -431602080. -431602080. -431602080. -431602080.
      -431602080. -431602080. -431602080. -431602080. -431602080.
      -431602080. -431602080. -431602080. -431602080. -431602080.
      -431602080. -431602080. -431602080. -431602080. -431602080.
      -431602080. -431602080. -431602080. -431602080. -431602080.
      -431602080. -431602080. -431602080. -431602080. -431602080.
      -431602080. -431602080. -431602080. -431602080. -431602080.
      -431602080. -431602080. -431602080. -431602080. -431602080.
      -431602080. -431602080. -431602080. -431602080. -431602080.
      -431602080. -431602080. -431602080. -431602080. -431602080.
      -431602080. -431602080. -431602080. -431602080. -431602080.
      -431602080. -431602080. -431602080. -431602080. -431602080.
      -431602080. -431602080. -431602080. -431602080. -431602080.
      -431602080. -431602080. -431602080. -431602080. -431602080.
      -431602080. -431602080. -431602080. -431602080. -431602080.
      -431602080. -431602080. -431602080. -431602080. -431602080.
      -431602080. -431602080. -431602080. -431602080. -431602080.
      -431602080. -431602080. -431602080. -431602080. -431602080.
      -431602080. -431602080. -431602080. -431602080. -431602080.
      -431602080. -431602080. -431602080. -431602080. -431602080.
      -431602080. -431602080. -431602080. -431602080. -431602080.
      -431602080. -431602080. -431602080. -431602080. -431602080.
      -431602080. -431602080. -431602080. -431602080. -431602080.
      -431602080. -431602080. -431602080. -431602080. -431602080.
      -431602080. -431602080. -431602080. -431602080. -431602080.
      -431602080. -431602080. -431602080. -431602080. -431602080.
      -431602080. -431602080. -431602080. -431602080. -431602080.
      -431602080. -431602080. -431602080. -431602080. -431602080.
      -431602080. -431602080. -431602080. -431602080. -431602080.
      -431602080. -431602080. -431602080. -431602080. -431602080.
      -431602080. -431602080. -431602080. -431602080. -431602080.
      -431602080. -431602080. -431602080. -431602080. -431602080.
      -431602080. -431602080. -431602080. -431602080. -431602080.
      -431602080. -431602080. -431602080. -431602080. -431602080.
      -431602080. -431602080. -431602080. -431602080. -431602080.
      -431602080. -431602080. -431602080. -431602080. -431602080.
      -431602080. -431602080. -431602080. -431602080. -431602080.
      -431602080. -431602080. -431602080. -431602080. -431602080.
      -431602080. -431602080. -431602080. -431602080. -431602080.
      -431602080. -431602080. -431602080. -431602080. -431602080.
      -431602080. -431602080. -431602080. -431602080. -431602080.
      -431602080. -431602080. -431602080. -431602080. -431602080.
      -431602080. -431602080. -431602080. -431602080. -431602080.
      -431602080. -431602080. -431602080. -431602080. -431602080.
      -431602080. -431602080. -431602080. -431602080. -431602080.
      -431602080. -431602080. -431602080. -431602080. -431602080.
      -431602080. -431602080. -431602080. -431602080. -431602080.
      -431602080. -431602080. -431602080. -431602080. -431602080.
      -431602080. -431602080. -431602080. -431602080. -431602080.
      -431602080. -431602080. -431602080. -431602080. -431602080.
      -431602080. -431602080. -431602080. -431602080. -431602080.
      -431602080. -431602080. -431602080. -431602080. -431602080.
      -431602080. -431602080. -431602080. -431602080. -431602080.
      -431602080. -431602080. -431602080. -431602080. -431602080.
      -431602080. -431602080. -431602080. -431602080. -431602080.
      -431602080. -431602080. -431602080. -431602080. -431602080.
      -431602080. -431602080. -431602080. -431602080. -431602080.
      -431602080. -431602080. -431602080. -431602080. -431602080.
      -431602080. -431602080. -431602080. -431602080. -431602080.
      -431602080. -431602080. -431602080. -431602080. -431602080.
      -431602080. -431602080. -431602080. -431602080. -431602080.
      -431602080. -431602080. -431602080. -431602080. -431602080.
      -431602080. -431602080. -431602080. -431602080. -431602080.
      -431602080. -431602080. -431602080. -431602080. -431602080.
      -431602080. -431602080. -431602080. -431602080. -431602080.</_>
    <_>
      -431602080. -431602080. -431602080. -431602080. -431602080.
      -431602080. -431602080. -431602080. -431602080. -431602080.
      -431602080. -431602080. -431602080. -431602080. -431602080.
      -431602080. -431602080. -431602080. -431602080. -431602080.
      -431602080. -431602080. -431602080. -431602080. -431602080.
      -431602080. -431602080. -431602080. -431602080. -431602080.
      -431602080. -431602080. -431602080. -431602080. -431602080.
      -431602080. -431602080. -431602080. -431602080. -431602080.
      -431602080. -431602080. -431602080. -431602080. -431602080.
      -431602080. -431602080. -431602080. -431602080. -431602080.
      -431602080. -431602080. -431602080. -431602080. -431602080.
      -431602080. -431602080. -431602080. -431602080. -431602080.
      -431602080. -431602080. -431602080. -431602080. -431602080.
      -431602080. -431602080. -431602080. -431602080. -431602080.
      -431602080. -431602080. -431602080. -431602080. -431602080.
      -431602080. -431602080. -431602080. -431602080. -431602080.
      -431602080. -431602080. -431602080. -431602080. -431602080.
      -431602080. -431602080. -431602080. -431602080. -431602080.
      -431602080. -431602080. -431602080. -431602080. -431602080.
      -431602080. -431602080. -431602080. -431602080. -431602080.
      -431602080. -431602080. -431602080. -431602080. -431602080.
      -431602080. -431602080. -431602080. -431602080. -431602080.
      -431602080. -431602080. -431602080. -431602080. -431602080.
      -431602080. -431602080. -431602080. -431602080. -431602080.
      -431602080. -431602080. -431602080. -431602080. -431602080.
      -431602080. -431602080. -431602080. -431602080. -431602080.
      -431602080. -431602080. -431602080. -431602080. -431602080.
      -431602080. -431602080. -431602080. -431602080. -431602080.
      -431602080. -431602080. -431602080. -431602080. -431602080.
      -431602080. -431602080. -431602080. -431602080. -431602080.
      -431602080. -431602080. -431602080. -431602080. -431602080.
      -431602080. -431602080. -431602080. -431602080. -431602080.
      -431602080. -431602080. -431602080. -431602080. -431602080.
      -431602080. -431602080. -431602080. -431602080. -431602080.
      -431602080. -431602080. -431602080. -431602080. -431602080.
      -431602080. -431602080. -431602080. -431602080. -431602080.
      -431602080. -431602080. -431602080. -431602080. -431602080.
      -431602080. -431602080. -431602080. -431602080. -431602080.
      -431602080. -431602080. -431602080. -431602080. -431602080.
      -431602080. -431602080. -431602080. -431602080. -431602080.
      -431602080. -431602080. -431602080. -431602080. -431602080.
      -431602080. -431602080. -431602080. -431602080. -431602080.
      -431602080. -431602080. -431602080. -431602080. -431602080.
      -431602080. -431602080. -431602080. -431602080. -431602080.
      -431602080. -431602080. -431602080. -431602080. -431602080.
      -431602080. -431602080. -431602080. -431602080. -431602080.
      -431602080. -431602080. -431602080. -431602080. -431602080.
      -431602080. -431602080. -431602080. -431602080. -431602080.
      -431602080. -431602080. -431602080. -431602080. -431602080.
      -431602080. -431602080. -431602080. -431602080. -431602080.
      -431602080. -431602080. -431602080. -431602080. -431602080.
      -431602080. -431602080. -431602080. -431602080. -431602080.
      -431602080. -431602080. -431602080. -431602080. -431602080.
      -431602080. -431602080. -431602080. -431602080. -431602080.
      -431602080. -431602080. -431602080. -431602080. -431602080.
      -431602080. -431602080. -431602080. -431602080. -431602080.
      -431602080. -431602080. -431602080. -431602080. -431602080.
      -431602080. -431602080. -431602080. -431602080. -431602080.
      -431602080. -431602080. -431602080. -431602080. -431602080.
      -431602080. -431602080. -431602080. -431602080. -431602080.
      -431602080. -431602080. -431602080. -431602080. -431602080.
      -431602080. -431602080. -431602080. -431602080. -431602080.
      -431602080. -431602080. -431602080. -431602080. -431602080.
      -431602080. -431602080. -431602080. -431602080. -431602080.
      -431602080. -431602080. -431602080. -431602080. -431602080.
      -431602080. -431602080. -431602080. -431602080. -431602080.
      -431602080. -431602080. -431602080. -431602080. -431602080.
      -431602080. -431602080. -431602080. -431602080. -431602080.
      -431602080. -431602080. -431602080. -431602080. -431602080.
      -431602080. -431602080. -431602080. -431602080. -431602080.
      -431602080. -431602080. -431602080. -431602080. -431602080.
      -431602080. -431602080. -431602080. -431602080. -431602080.
      -431602080. -431602080. -431602080. -431602080. -431602080.
      -431602080. -431602080. -431602080. -431602080. -431602080.
      -431602080. -431602080. -431602080. -431602080. -431602080.
      -431602080. -431602080. -431602080. -431602080. -431602080.
      -431602080. -431602080. -431602080. -431602080. -431602080.
      -431602080. -431602080. -431602080. -431602080. -431602080.
      -431602080. -431602080. -431602080. -431602080. -431602080.
      -431602080. -431602080. -431602080. -431602080. -431602080.
      -431602080. -431602080. -431602080. -431602080. -431602080.
      -431602080. -431602080. -431602080. -431602080. -431602080.
      -431602080. -431602080. -431602080. -431602080. -431602080.
      -431602080. -431602080. -431602080. -431602080. -431602080.
      -431602080. -431602080. -431602080. -431602080. -431602080.
      -431602080. -431602080. -431602080. -431602080. -431602080.
      -431602080. -431602080. -431602080. -431602080. -431602080.
      -431602080. -431602080. -431602080. -431602080. -431602080.
      -431602080. -431602080. -431602080. -431602080. -431602080.
      -431602080. -431602080. -431602080. -431602080. -431602080.
      -431602080. -431602080. -431602080. -431602080. -431602080.
      -431602080. -431602080. -431602080. -431602080. -431602080.
      -431602080. -431602080. -431602080. -431602080. -431602080.
      -431602080. -431602080. -431602080. -431602080. -431602080.
      -431602080. -431602080. -431602080. -431602080. -431602080.
      -431602080. -431602080. -431602080. -431602080. -431602080.
      -431602080. -431602080. -431602080. -431602080. -431602080.
      -431602080. -431602080. -431602080. -431602080. -431602080.
      -431602080. -431602080. -431602080. -431602080. -431602080.
      -431602080. -431602080. -431602080. -431602080. -431602080.
      -431602080. -431602080. -431602080. -431602080. -431602080.
      -431602080. -431602080. -431602080. -431602080. -431602080.
      -431602080. -431602080. -431602080. -431602080. -431602080.
      -431602080. -431602080. -431602080. -431602080. -431602080.
      -431602080. -431602080. -431602080. -431602080. -431602080.
      -431602080. -431602080. -431602080. -431602080. -431602080.
      -431602080. -431602080. -431602080. -431602080. -431602080.
      -431602080. -431602080. -431602080. -431602080. -431602080.
      -431602080. -431602080. -431602080. -431602080. -431602080.
      -431602080. -431602080. -431602080. -431602080. -431602080.
      -431602080. -431602080. -431602080. -431602080. -431602080.
      -431602080. -431602080. -431602080. -431602080. -431602080.
      -431602080. -431602080. -431602080. -431602080. -431602080.
      -431602080. -431602080. -431602080. -431602080. -431602080.
      -431602080. -431602080. -431602080. -431602080. -431602080.
      -431602080. -431602080. -431602080. -431602080. -431602080.
      -431602080. -431602080. -431602080. -431602080. -431602080.
      -431602080. -431602080. -431602080. -431602080. -431602080.
      -431602080. -431602080. -431602080. -431602080. -431602080.
      -431602080. -431602080. -431602080. -431602080. -431602080.
      -431602080. -431602080. -431602080. -431602080. -431602080.
      -431602080. -431602080. -431602080. -431602080. -431602080.
      -431602080. -431602080. -431602080. -431602080. -431602080.
      -431602080. -431602080. -431602080. -431602080. -431602080.
      -431602080. -431602080. -431602080. -431602080. -431602080.
      -431602080. -431602080. -431602080. -431602080. -431602080.
      -431602080. -431602080. -431602080. -431602080. -431602080.
      -431602080. -431602080. -431602080. -431602080. -431602080.
      -431602080. -431602080. -431602080. -431602080. -431602080.
      -431602080. -431602080. -431602080. -431602080. -431602080.
      -431602080. -431602080. -431602080. -431602080. -431602080.
      -431602080. -431602080. -431602080. -431602080. -431602080.
      -431602080. -431602080. -431602080. -431602080. -431602080.
      -431602080. -431602080. -431602080. -431602080. -431602080.
      -431602080. -431602080. -431602080. -431602080. -431602080.
      -431602080. -431602080. -431602080. -431602080. -431602080.
      -431602080. -431602080. -431602080. -431602080. -431602080.
      -431602080. -431602080. -431602080. -431602080. -431602080.
      -431602080. -431602080. -431602080. -431602080. -431602080.
      -431602080. -431602080. -431602080. -431602080. -431602080.
      -431602080. -431602080. -431602080. -431602080. -431602080.
      -431602080. -431602080. -431602080. -431602080. -431602080.
      -431602080. -431602080. -431602080. -431602080. -431602080.
      -431602080. -431602080. -431602080. -431602080. -431602080.
      -431602080. -431602080. -431602080. -431602080. -431602080.
      -431602080. -431602080. -431602080. -431602080. -431602080.
      -431602080. -431602080. -431602080. -431602080. -431602080.
      -431602080. -431602080. -431602080. -431602080. -431602080.
      -431602080. -431602080. -431602080. -431602080. -431602080.
      -431602080. -431602080. -431602080. -431602080. -431602080.
      -431602080. -431602080. -431602080. -431602080. -431602080.
      -431602080. -431602080. -431602080. -431602080. -431602080.
      -431602080. -431602080. -431602080. -431602080. -431602080.
      -431602080. -431602080. -431602080. -431602080. -431602080.
      -431602080. -431602080. -431602080. -431602080. -431602080.
      -431602080. -431602080. -431602080. -431602080. -431602080.
      -431602080. -431602080. -431602080. -431602080. -431602080.
      -431602080. -431602080. -431602080. -431602080. -431602080.
      -431602080. -431602080. -431602080. -431602080. -431602080.
      -431602080. -431602080. -431602080. -431602080. -431602080.
      -431602080. -431602080. -431602080. -431602080. -431602080.
